digraph Tree {
node [shape=box] ;
0 [label="Pclass <= 0.4772\nmse = 0.5135\nsamples = 80\nvalue = 0.043"] ;
1 [label="Pclass <= 0.2871\nmse = 0.048\nsamples = 24\nvalue = 0.6921"] ;
0 -> 1 [labeldistance=2.5, labelangle=45, headlabel="True"] ;
2 [label="mse = 0.0201\nsamples = 16\nvalue = 0.8094"] ;
1 -> 2 ;
3 [label="mse = 0.0212\nsamples = 8\nvalue = 0.4574"] ;
1 -> 3 ;
4 [label="Pclass <= 1.5401\nmse = 0.4551\nsamples = 56\nvalue = -0.2351"] ;
0 -> 4 [labeldistance=2.5, labelangle=-45, headlabel="False"] ;
5 [label="mse = 0.1201\nsamples = 41\nvalue = -0.5914"] ;
4 -> 5 ;
6 [label="mse = 0.0755\nsamples = 15\nvalue = 0.7386"] ;
4 -> 6 ;
}